43 100
the -0.00095165981 0.00021465486 -0.0019296637 -0.0043691359 -0.00027811807 -0.0048178807 -0.0012480484 0.0040862882 0.0005362932 -0.0003636562 0.0042853928 0.0022088888 0.0038648651 0.0027856999 -0.0042823385 -0.0027976227 0.003137846 0.0018727167 -0.0030512866 -0.0027553458 0.0028306821 0.0044142017 -0.00077457895 0.0033065188 0.0030390201 -0.0039841891 -0.0040577212 0.0042885593 0.00049577525 -0.0042665401 -0.00043678388 -0.004391565 -0.003948668 -0.0014231375 -0.0021777446 0.0014678573 -0.0014475042 -0.0018841334 -0.0023517257 -0.00035343727 -0.0040541948 0.0042413697 -0.0010137893 -0.0017330496 0.0026599516 0.0041535203 -0.0018405238 -0.0018835935 0.0046227504 0.0006919587 0.0012125813 -0.0040420298 -0.0048314165 -0.0034626611 -0.00032903851 -0.0010845176 -0.0045172977 -0.0040955245 0.0021493416 0.002529429 -0.0030783627 0.0028288544 -0.0032698701 -7.9133271e-05 -0.0011075813 0.0024763679 -0.0018117612 -0.0030796968 -0.00053039799 -0.0011439461 0.0008553894 0.00026280494 -0.00031955104 -0.0034172516 -0.0022470276 0.0041724667 -0.0038848077 -0.0047179945 0.00074830308 -0.0028117916 -0.0042847847 -0.00056682026 -0.003277302 0.00088101235 -0.0016723288 -0.001073955 0.00090562744 -0.00041867915 0.0037566076 -0.0025788972 0.0038393436 -0.00078643073 -0.00095527183 -0.0032860518 0.0010097714 -0.0042334804 0.002238008 0.0030315684 0.00040198347 -0.0038656294
that -0.0039476184 0.0018843376 -0.00314762 -0.002395421 0.0041383975 -0.0040141945 -0.0040123025 0.0028757406 0.0041638445 -0.0015480728 0.0024676069 0.00091371476 0.0043277666 0.0012031054 -0.0011937587 0.0040193317 0.00059285708 -0.0030468444 -0.00067893555 -0.00041296569 0.00019708839 -0.0023359992 0.0031772878 0.0048748231 0.0018384797 0.0025775554 -0.0014551197 0.00039388263 -0.0019128433 -0.0026729451 0.0026532379 0.0020360916 0.0028479712 0.00316707 -0.0013766772 -0.0034127664 -0.0013170788 8.3114073e-06 -0.0017809945 -0.0035991871 0.0049074385 -0.0015635687 -0.00079731725 0.00082820817 -0.0031870268 0.0029792432 -0.0041002817 0.003867445 0.0035728142 -0.00094992376 0.0018855961 -0.00052343373 -0.001553939 -0.00025404614 -0.0025521081 0.003508979 -0.0017410972 0.0048438269 -0.00067811593 0.0047328812 -0.002282992 0.00085857406 -0.0026000277 -0.0047148596 -0.002948683 -0.0049059442 0.0039999373 0.0034283712 0.0012135589 -0.00078391837 0.0027428356 0.00070972915 -0.0019474183 -0.0046678637 0.0010953638 -0.0041669845 -0.0014824441 -0.00051367108 -0.00070995308 0.0030181292 -0.0020338669 0.0018901984 -0.0012277955 -0.0010828796 0.0047986694 -0.00027896505 0.0048602163 -0.0015223585 0.00073122472 -0.0024211297 0.0014582968 -0.0011240852 0.0011003814 -0.0016489683 -0.0017948672 0.0013934836 0.00039063074 0.0023122181 0.00092039612 0.0047059832
in 0.0003697169 -0.0031984113 0.0044000843 -0.00020071113 0.00028559106 -0.0003784702 -0.0040034084 0.00083927857 0.0020108537 -0.001346978 -0.00050373544 0.0018572828 -0.0016808668 -4.657884e-05 -0.0047703274 0.004396467 -0.0023518754 -0.0024700165 0.0039547877 0.0039989343 0.001658894 0.0027681584 0.0043871407 0.0029940447 -0.0041312287 -0.0010868333 0.0034127727 -0.0012939988 0.0044499668 0.0028211335 9.5207251e-05 0.0024964146 -0.0032564106 -0.0034924664 0.0036223368 -5.9435686e-05 -0.0024316928 -0.0030943842 -0.0041105645 -0.0025359171 0.0040628421 0.00088285888 0.0028586215 -0.0046755397 -0.0022360547 0.0014085904 -0.0013044119 0.0029610347 0.0015707203 -0.002141716 -0.00351342 0.0047760457 -0.0032223358 -0.0040493086 -0.00024354538 -0.00052431715 -0.00052883767 0.0021169372 0.0029321797 -0.0013195009 -0.0035769343 0.0029562577 0.003639472 -0.0019033037 0.0024638877 0.0036639632 0.0034612918 -0.00057697116 0.00046038086 -0.0026171184 -0.0033534386 -0.0021331699 0.0045228661 -0.0028325766 -0.0022081498 -0.0037624112 0.0034607607 -0.0029186644 -0.0035180598 -0.002555269 -0.003592276 -0.0011647985 0.0044174385 -0.0020961647 0.0028098286 0.0044972873 -0.0018333644 -0.0026049358 -0.0044157137 -0.0027290655 0.0023070478 0.0047578923 0.00098829484 0.0045348359 0.0035001945 -0.0013726223 -0.0034308671 0.0033186879 0.0024754836 0.0025368417
can 0.0018330027 -0.0042521828 -0.0017448768 0.0043914909 -0.0036078475 0.0042631901 -0.0044023343 0.0022998233 -0.0011358787 0.0033393847 -0.0032684403 -0.00042244862 0.0015019643 0.0032002504 -0.0047649476 0.0045006028 0.004761484 0.0033661323 -0.0023632143 -0.0013657355 0.0038529048 -1.3581924e-05 -0.00017368355 0.0045688055 -0.0048865736 -0.004647098 2.3411234e-05 0.0025302761 0.0032576493 -0.0048977006 0.0037126106 -0.0012616832 -0.001897038 -0.0042229821 -0.0033020983 0.0035059946 -0.00098036148 0.0025885131 -0.0017100074 0.0046511944 -0.002754333 -0.0020729632 0.0021248825 0.0041894275 0.0030440958 -0.00086274295 -0.0028170224 0.0034072504 0.001878122 -0.0032632425 0.00084917189 -0.0037327751 0.0026081614 -0.002356793 -0.0049310727 0.0027938162 -0.00084327796 -0.00067865825 -0.0038821537 -9.26305e-05 0.0022902705 -0.0017211965 -0.0033439442 -0.0029859212 -0.0011985406 0.0039630351 -0.00010974571 0.0016156595 0.0034573961 -0.0011447323 -0.0011638753 0.0036284041 -0.0014652353 0.0018285603 0.0020459245 -0.00054153893 -0.0033618736 7.4326352e-05 -6.6137014e-05 0.0048604347 0.0029399155 -0.00078273483 0.00058721268 0.0018116932 0.003864374 0.000490623 -0.0028442093 -0.0027926296 -0.0001809824 0.0048484844 0.002965278 -0.0014156456 -0.0025482329 0.00071755832 -0.0014132966 -0.0029036328 -0.0040028654 0.0045783231 -0.0029665059 0.0036279729
need -0.0022185978 -0.0018675993 -0.0045441748 0.0043510296 0.0031926811 0.001632751 0.0014817455 -0.0041409992 0.0031970264 -4.613306e-05 -0.0039878325 0.0031817988 0.0045738136 -0.0012341279 0.001180884 -0.0024418719 0.00054157822 0.004599439 -0.0036982787 0.00097070157 -0.001005061 -0.0021881578 0.00068266707 -0.0029060126 -0.0022469275 -0.0030203038 0.0021126396 -0.0049198456 0.0020017787 0.0035970465 0.0023162551 0.0018355935 -0.0045332126 -0.0012249935 0.00088666793 0.0010882991 -0.003469974 0.00044090059 -0.0010635547 0.0041750483 0.0044904919 0.0041865222 -0.0013185494 -0.0015352805 -0.00183749 0.004551549 -0.00079064124 0.00075286103 0.0033248805 0.0042493986 0.002959986 0.0020764866 0.0036479048 0.00099086028 0.0029756343 0.00026322971 0.00073413632 -0.0022479908 -0.0039110035 0.00085949636 -0.0012773559 -0.0016692298 -0.0046196766 0.0013181956 0.0010573266 0.0016837069 -0.0044614649 -0.00068880263 0.0005426493 -0.0047452017 -0.0026413181 -0.0015453583 0.0036276996 -0.0022306188 0.0044074417 0.0021131691 0.0010202567 0.003365428 0.0039850892 0.0020639927 -0.0026299902 0.0022255944 0.0028710559 -0.002683308 -0.0017182066 0.0030342515 0.0048636585 -0.004769004 0.0030643789 0.0048423642 -0.0032830704 0.00081848947 0.0026338003 0.001125439 -0.0048612929 0.0028313601 0.0027351552 1.4058223e-05 0.00030732522 -0.0041087139
state 0.0004740752 0.004348252 0.0037069612 -0.0010305326 0.0012330863 -0.0010108844 -0.0034633162 0.0040232232 0.0048491582 -6.2550804e-05 -0.0036627753 0.0021816583 0.0016172806 0.0038243264 -0.0047460166 -6.7653855e-05 -0.0043842876 0.0010144213 -0.0025931937 -0.0011542629 0.0014193131 0.0019475784 -0.0040977811 -0.001607195 0.00019497727 0.0027320406 -3.1215437e-05 0.0047878269 -0.0039814333 -0.0045761922 -0.0041818814 0.0014355305 0.0043673464 -0.00042845288 0.0010717044 0.004986525 0.0028531095 -0.0032866481 3.5276356e-05 -0.0029703095 0.0012415388 -0.0020176179 -0.0029952629 0.0028505842 0.0044379006 -0.0037470709 0.001400353 -0.0048379721 0.0025752529 -0.0047866264 0.00084032561 -0.0032892704 0.0012014358 4.6905214e-05 0.0040854868 -0.0026531015 0.00011782598 0.00023485371 0.00057689747 -0.0040690545 2.4964957e-05 -0.0046588392 4.8331618e-05 -0.0021857156 0.0035495325 -0.0048609441 0.0013081424 0.0038737131 -0.0049085487 0.0015633025 -0.0020086837 -0.0033102352 -0.0012053195 0.0018739025 0.0048993067 -0.0021224292 -0.0028491849 -0.0017446682 -0.0030998408 -0.0040923809 -0.0021450196 0.0049895905 -0.0028164268 0.00038915739 0.0030808027 -0.0034672346 0.00055470638 0.0025159272 -0.002213856 -0.0014902954 0.0016781713 0.0019927018 0.0032865366 0.0017315648 0.004238762 0.0039059734 -0.00067975541 0.0036862355 0.0023860871 0.0042813155
and -0.0023275495 0.0035663317 0.0031921393 -0.0048073805 -0.0045896037 0.0024933645 0.0022541287 0.0026422795 0.00331927 0.0021019406 0.0023947484 -0.0014363719 -0.00015071014 0.0039688069 0.0017528513 -0.0045143813 0.0028407027 0.0028085164 3.8914277e-05 0.0043105795 -0.0028970761 -0.0031970406 0.00030591272 -0.0024964083 -0.00051688653 0.0039052463 0.0045413263 0.00076201285 -0.0011656057 -0.0032703348 0.0043152994 -0.0030239192 0.00088172226 0.0025635373 -0.0013153019 -0.0044534188 -0.0043029627 -0.0021799756 0.0021625259 -0.0027041216 0.001389797 0.001260535 0.00096106675 -0.0018711751 -0.00076509896 -0.0021670705 0.0048711156 -0.0027686052 -0.0044726864 -0.0019663442 0.0042907507 0.00040419033 -0.00043345729 -0.0024545342 -0.0004055445 -0.0047320165 0.0017187815 0.0039909417 0.00019440975 -0.002266241 0.0023356024 -0.0010510248 -0.0018614893 -0.00030591805 -0.0040165111 -0.0025693635 -0.0032983148 -0.00062370475 -0.0037022352 -0.0024139578 8.8174857e-05 -0.0047971453 -0.0012069935 0.0016231117 -0.001062016 -8.1000762e-05 -0.0014261421 0.0033962529 0.0017639154 -0.0047713392 0.0038361005 0.0032912805 -0.0012523127 0.0019775885 -0.00010036783 0.0035208759 -0.00080462085 -0.0036305168 -0.0029403926 0.00029416988 0.00078355952 0.0037878011 -0.0024635578 0.0024749185 -0.0020906681 0.00035447013 0.0006609371 -0.0040043755 -0.0025988969 0.001836158
vectors -0.00045558531 0.0024376779 -0.0045564356 0.00047121188 0.0022572696 -0.0022730236 -0.00132656 -0.0016240587 0.0016233337 0.0033893313 0.0024027722 -0.0010495138 0.004887281 -0.0031563216 -0.0048687025 -0.00227395 -0.00075001846 0.0010821132 0.0027697477 -0.0019692939 0.0013715961 -0.0042262292 0.0014556699 -0.00027287786 -0.0038473243 -0.0042909943 0.0026382203 0.0011646466 -0.0044050133 0.0030104397 0.0035011829 -0.00082568434 0.00038693764 -0.002544431 0.0019476723 -0.0046315761 0.0012570443 0.0032757411 -0.0024878306 -0.0027708383 -0.0015718302 -0.0040525394 -0.0016513005 -0.0015220785 0.00080757379 -0.00016536497 -0.004429454 -0.00093387213 -0.0036536243 -0.0038466169 -1.3004814e-05 -0.0001804613 -0.0039025806 0.0033276097 0.0021509877 0.00095941965 -0.0027744102 0.0049624741 -0.0048086634 0.0001266562 -0.00092689047 0.0017547691 0.0039337697 0.0022869739 0.0034392069 0.0018054135 0.0038079859 -0.0043429937 0.0038084418 -0.00075864187 0.00083897036 0.0026478986 0.0026536488 -0.0032228776 0.0044830758 -0.0034403505 -0.0046645217 0.0010018982 0.0018168978 -0.0041705873 -0.0015771001 0.0010800194 -0.00010470179 -0.0036946689 -0.0012212811 0.001232921 -0.0030246805 0.00056612812 0.0015209356 0.0033351288 -0.0029157249 0.0018914215 0.0034476628 -0.0042193816 0.00044903954 -0.0042570471 0.0020744975 0.0036914768 -0.004501089 -0.0040163086
for -0.0030947225 -0.0041626371 -0.0024910623 -0.00136667 -0.0026538125 0.0043227877 0.0038662106 0.0034174467 -0.0016562988 0.0048820856 0.0047718454 -0.0044395248 0.001637451 0.001689097 -0.0022966939 0.0039275391 7.6603392e-05 -0.0016020784 -0.0013872398 -0.00053650979 0.0021010013 -0.0037283124 0.0028923329 -0.00073705305 0.00092953804 0.0048947129 -0.0032823242 -0.0011409906 -0.0034108001 -0.00060064491 0.0049088704 0.0045735314 0.00036329206 -0.00082747155 0.00064735312 0.003155383 0.0018663788 -0.00021402939 0.0010493469 0.0042588306 0.0011408874 -0.0028586569 -0.0030327952 -0.0015549524 -0.00050220103 -0.0016463478 -0.0012215916 0.0014423926 0.0039021568 0.00018575185 0.0046571032 0.0037856125 -0.00025246793 0.0029558253 -0.0014149284 0.0046524261 -0.0016207692 0.0015224521 -0.00070664019 -0.0013143802 -1.0602826e-05 -0.0014097666 0.001029231 -0.0042561009 0.0047214208 0.00039910505 0.0015764906 -0.0024156098 0.0032766906 0.00015021079 -0.002342022 0.0044002193 -0.0039081657 -0.0039688773 -0.0022052438 0.0001615236 0.0040702336 -0.0036769768 -0.0011496163 -4.0499945e-06 -0.0012220638 0.00076590606 -0.0034697074 0.0031253628 0.0036969245 -0.0045764348 -0.0049110861 -0.0036405339 0.0021652135 -0.00020853608 0.0011747914 -0.0031274618 -3.2687192e-05 -0.0010071655 -0.002819564 -0.0047925371 -0.00091997831 0.0016404185 -0.00016034562 -0.00085257459
to -0.0048036324 0.00023822738 0.0023828677 -0.0038534913 -0.0027618841 -0.0010764165 -0.0047265426 -0.0021990507 -0.0031753436 -0.0010808411 -0.0008302349 -0.0044141999 0.0013119708 -0.0038272736 -0.00054140814 -0.0047134091 -0.0014262792 -0.0024075578 0.0044762455 -0.0044402187 -0.0018009261 -0.00069584523 0.0036490895 0.00077013264 0.0030489292 0.0019274707 -0.0027604008 -0.0021328237 0.0044664955 -0.0041541439 -0.0033066147 0.0031994935 0.0015395429 -0.0047952067 0.0025964864 0.0021036465 0.0031490431 -0.0040449486 0.0041577574 -0.0031112579 0.0045401258 0.0047632987 0.0013473381 0.004826617 -0.0047370996 0.0021312812 -0.00029973706 -0.0024358223 0.00031804258 -0.00067773333 -0.003037218 -0.004485697 -0.0044401749 0.0020453485 -0.00044333923 0.0042667342 -0.0016094511 0.0041591143 -0.00058997609 -0.0018487606 -0.00020747405 -0.00012304782 0.00055472745 -0.0038577858 0.0024722922 0.0020853654 0.0031964232 -0.0045025009 -0.00017690151 -0.0035481711 -0.00044442099 -0.0029732522 0.001412718 0.0011256967 -0.0037561562 0.0047244234 0.0023922846 -1.7467913e-05 -0.0035161115 0.0027604823 -0.0021603925 -0.0046308218 -0.0003380054 0.0013915333 -0.004489698 -0.0031337626 -0.0012590149 -0.0042483895 0.0039422954 -0.0038670271 0.0047812536 -0.00056071696 0.001381335 -0.00018442507 -0.0021375918 -0.00014576843 -0.0035168454 0.0019645498 -0.0031704514 0.0033633013
(don’t -0.0049876054 0.0019019666 0.0040694051 -0.004203184 0.0018319413 0.00022848752 -0.0012844785 0.0025130806 -0.0047021159 -0.0028742815 0.0020323913 0.0041774665 0.0015128524 0.0041725892 -0.0025634661 -0.0012255179 -0.0025887068 -0.0012704859 0.0017054755 6.8452129e-05 -0.0042140437 0.003436663 0.004793135 0.0044505121 -0.0013386438 -0.0037823021 -0.0017403781 -0.001558247 -0.0043237917 0.0010558316 0.0012053676 -0.0038946811 -0.0014166802 -0.0032982763 0.0022301294 -0.0049770768 -0.00081314921 -0.0026799224 -0.0014485046 0.00022782524 0.0046780631 0.0049215225 0.002581157 0.0037947872 -0.0040534833 -0.001823219 0.0015182263 -0.0045718625 -0.0022291627 0.0026478346 -0.00087590393 -0.0029632684 9.4209798e-05 0.0016757497 -0.0045969146 0.0045941412 0.0023606422 -0.0016581016 0.00012076593 -0.001149767 0.003622317 0.0018003992 0.0034630061 0.0019620075 -0.0010732944 0.0049211918 0.0032925513 0.00078439218 0.0020604315 2.0273106e-05 0.0032805512 0.0022500474 -0.0035452724 -0.0028032467 -0.0036788236 -0.0031704078 0.00072745758 -0.00030256333 0.00025229075 -0.0029844008 -0.0034814533 -0.003579434 0.0028980388 0.0020405906 0.0043121143 -0.0044607567 -0.003308998 -0.0034690173 0.003372445 0.0015844146 -0.00013003004 0.0034491287 -0.00037154919 -0.0010343925 -0.0044009523 -0.0048734345 0.0044882833 -0.0031486771 0.0030461946 -0.0012380523
smaller -0.002692346 0.00061378884 -0.002245449 -0.0042766053 -0.0047776802 0.0026123894 0.0022294109 0.0039485502 0.0027866994 -0.0019196229 -0.0013535422 -0.0035212964 -6.0896185e-05 0.0028803227 0.0016854187 -0.00035578574 0.00468694 0.0041174279 0.00453259 -0.001390488 -0.0035542706 0.0019009553 -0.0037899977 0.00086256408 0.00086902338 0.0038064681 -0.0022347325 -0.0011956544 0.0049148095 -0.0025213996 -0.0022390345 -0.0037823252 -0.0020716682 0.00023502475 0.0040393248 0.0021876211 -0.0036514308 -0.0012692515 0.0039311475 -0.0035630106 -0.0021069222 -0.0034226296 -0.0035936816 0.0022978932 -0.00032224713 0.0046442123 0.0045818281 -0.0027457392 0.0026480979 -0.0030304 0.0047099902 -0.000712907 0.0018412949 -0.00191988 0.00076390716 -0.00092804024 -0.00080156472 -0.00053810945 0.0019358278 0.0001179527 0.0035689829 0.0033997439 -0.0028982144 -0.0014295484 -0.001651785 0.0036932833 -0.0032500883 0.0037367833 -0.00093387451 -0.0041277851 -0.004317028 0.0027977973 -0.0014689064 0.0044889697 -0.0004993052 -0.0033667998 0.0026230044 0.0039193523 -0.0004480127 0.0033516081 -0.0014265268 0.00098770834 0.0029676387 -0.0020887456 -0.0004115818 0.00075648638 -0.00088405976 0.0049353926 0.0048976289 -0.0024825449 -0.0040213075 0.0029850011 -0.0023025828 0.0040128538 -7.0908507e-05 0.0015186945 -0.0033582572 0.00068179471 0.0029160953 -0.00058727665
loading 0.0011263078 -0.0026090848 -0.0029774413 0.0010741372 -0.0030082276 -0.0027002976 0.0042256122 -0.0033750187 0.0045721163 -0.0019456637 0.0016935281 -0.00065602915 0.0031208317 -0.00054851285 0.0012368389 0.0049414141 0.0044919299 0.001437558 -0.0016438313 0.0046520056 0.0023052846 0.0024776091 0.00083569915 0.001358179 -0.0047527766 0.0026522225 0.0015490586 -0.003263107 -0.0033419968 -0.00097933214 0.0010957909 -0.0034288156 -0.0036114424 0.0026912282 -0.001169175 0.0033778606 -0.0024479078 -0.0031733664 0.0044162017 0.00054628449 -0.0017523407 0.00080169854 -0.0031504284 -0.0016609095 -0.0039442657 -0.0024904935 0.0014481484 -0.0030095 0.0041601309 -0.0014113834 9.1369307e-05 -0.00070463796 -0.0033623527 0.0045564394 0.001127013 0.0049363482 0.0033972471 0.0010717498 -0.0016484731 0.0019474664 -0.004330419 0.0049957284 -0.0034352015 0.0048760348 0.0047815428 -0.0027270732 0.0025483519 0.0018817253 -0.0034822871 0.0004620011 0.00095637352 -0.0025555955 0.00028436829 -0.00068151904 -0.0038713499 -0.0012360554 -0.0037503375 0.0029757807 0.00051954266 0.0034677079 -0.0048190695 0.0029522297 -0.0029079986 -0.0043651224 0.0031617135 0.0019144465 0.0009449721 0.0015708386 -0.0036497649 -0.0015689412 -0.0031406616 1.3292081e-05 0.0043135025 -0.0019739137 -0.0036333853 0.0022597767 0.00073658815 0.00079085591 -0.0035912276 -0.0024175064
into -0.00015188295 -2.241013e-05 0.0040816828 -0.002332987 -0.0030898368 0.0020634425 0.0017999357 -0.0023629181 -0.0021337492 -0.0026731102 0.0045902934 0.004365596 -0.0024345526 -0.0010905784 0.00036548654 -0.0045094467 0.0025143242 -0.0037909865 -0.0023116148 -0.00047301728 0.004259408 -0.0047699031 -0.0047661248 0.0014157663 -0.0030697887 -0.0039594807 0.0013078168 0.0035569447 0.0027730647 0.0038011514 0.0042394572 -0.001841462 -0.0032655718 -0.0023453312 -0.0031059626 -0.0035254632 -0.0023224608 -0.0013220025 -0.0035335366 -0.00087995606 0.0045286249 -0.0020799614 0.0027434193 -0.0026386669 -0.0032246406 0.0001257947 -0.0028060414 0.0019268367 0.00093797472 0.0036446678 0.0049459627 0.0042420807 0.0009932305 0.0025354899 -0.00026887661 0.0015294208 -0.0013947148 0.0018330994 0.0011237942 0.0045261034 0.004979474 -0.0033055583 -0.00040740197 -0.0028383697 -0.0030712944 -0.0039305305 0.0026704082 0.0047871573 0.0041393791 0.0023764912 -0.0039874786 0.0027427077 -0.0040045623 -0.0016906291 -0.0039940113 0.0031916546 0.00056471635 -0.0048989002 -0.003002364 0.0044596395 -0.0021448049 0.0030932592 0.0027626064 0.0017358292 0.0042569977 0.0044838665 -0.00295528 -0.0040240609 0.0014647907 0.00054567441 -0.0042659775 0.0010788483 0.0034706465 0.0033073344 0.0046310294 -0.00048948685 3.7498246e-06 0.00022433267 -0.0047323052 -0.0023630483
trained 0.0049541299 -0.00076237362 0.00061270595 0.0021181365 -0.00040914488 0.0035609689 0.0017922898 0.0044536944 -0.0041441494 -0.0021608009 -0.0013191819 -0.0032457118 -0.0049733319 0.0019567432 0.0048745926 -0.0044584097 -0.0035266969 0.00038005327 -0.0015629429 0.0033141554 0.0048346575 -0.0038891211 0.0026688159 0.004225106 -0.00014307883 -0.0040400438 0.00105002 -0.00081729179 0.0029279925 0.0038612266 0.002730767 0.0020619803 -0.0008427084 -0.00075509725 0.0045043919 -0.0027829956 0.0014866447 -5.6002473e-06 0.0017426995 0.0039735218 0.0041276929 -0.0014757398 -0.0035027303 -0.0033035886 0.0002346632 -0.00084644282 0.0035203877 -0.00032314641 0.0034232028 0.0025948312 0.00024177316 0.00071421632 0.0030230808 0.00031683125 0.00023318079 0.0022913299 -0.00025899286 -0.004140879 -0.0021553794 0.00027460753 -0.0046481518 -0.0048339674 0.00026322869 0.0041978769 -0.0032419739 -0.001048647 -0.00042984463 0.0018501254 -0.0020622241 0.00090183859 -0.0043323641 -0.002767968 0.002485452 -0.00083533273 -0.0038847902 0.0034327297 0.00030829338 -0.0043144771 -0.00090869534 -0.0015977578 -0.0017008133 -0.0014738757 0.0040496071 -0.0016386328 -0.00017019648 0.0026497426 0.0027664499 -0.0036975406 0.0022371374 -0.00073669956 -0.00044923695 -0.0032524257 -0.0015372321 -1.3891346e-05 -0.0023708565 0.003959843 -1.8548862e-05 0.00023479687 -0.0011189259 0.0040405104
don’t 0.0017848392 -0.00026236518 0.0010033684 -0.00059208111 -0.0030621104 0.0035383478 0.0045316359 0.00011907655 0.0039338036 0.0033349425 -0.0016880498 -0.0023118749 0.0014427002 -0.0033387877 -0.00022228288 -0.0026699996 0.0040931706 -0.0021819174 -0.0020699063 -0.0037487606 -0.0029810981 0.0020230913 -4.9408842e-05 0.0026190758 -0.0033491168 -0.0049515888 0.0046126 0.0038877937 -0.00049938966 -0.0026095579 -0.0038156142 0.0041679163 0.0031606012 -0.0044538965 -0.0030176253 -0.0014321411 -0.0025045383 -0.0045126653 -0.0028366174 0.0042235162 0.0041317972 -0.0035005445 -0.00099755754 -0.002175835 -0.0030408727 0.0021817929 0.0020861875 0.0049914229 -0.0024515316 0.0020385117 0.00055758556 -0.0039337077 0.0036772392 0.0041641369 0.0011336085 -0.0028025329 -0.00086873246 0.0037256505 0.00038161845 -0.00023990878 0.0010163221 0.0029637392 0.0037893669 -0.0041367533 -0.0012162783 0.0030509075 -0.0033544111 -0.0011698889 0.00031127367 0.0042287628 0.0016438271 0.0046132314 -0.0044751517 -0.001288324 0.00068190589 -0.0019949623 -0.0035721855 -0.003365695 -0.0028481402 0.0034647123 -0.0018191651 0.0040400443 0.00025175457 -0.00329191 0.0042894296 0.0031929438 -0.0027141066 0.0043496815 -0.0046580927 0.0012703115 0.00075558637 0.0038705154 0.00014404667 0.00032240545 -0.0045433054 -0.0021238322 0.0026760758 0.0027475874 0.00018398624 0.0017890541
lightning 0.0025891017 -0.0011031898 0.0011823821 0.0035847493 -0.0015588813 -0.0036844029 -0.0029768858 0.0025040684 -0.00060710445 0.0037516819 -0.0026899304 -0.0039483365 -0.00074963993 0.004668822 -0.00094727334 -0.0019838763 -0.0022139032 -0.001965041 -0.0010106077 0.0013328465 -0.0037088187 -0.00089135778 0.001242951 0.0043696812 -0.0013080392 0.0027576569 0.0017024133 -0.0012022561 0.00061746751 0.0034520077 -0.0027569789 -0.00266456 0.0047091604 -0.0035977922 0.003024857 -0.0013567576 -0.0049857837 -0.0025678698 0.0001362016 0.0021334654 0.00019399798 0.0035912273 8.4039471e-05 0.0032443788 -0.0010823703 0.0013607951 0.0014517577 -0.0010883223 0.0019878228 0.00061995257 0.0019004042 -0.0041378392 0.0010820194 -0.00081375433 -0.0042649414 0.0031686386 0.001425955 0.00029633593 0.00020651639 9.0751009e-06 0.00084683049 0.0031325819 0.0037577513 0.0038348467 0.0018717661 -0.0035213092 0.0032855968 -0.00013051547 -0.0030648785 -0.00029844145 0.0030171894 0.003640963 1.0181898e-05 0.0035046285 0.0011100644 0.00076985324 0.0019961915 -0.0010371313 0.0041611232 0.0029264325 0.0023255968 -0.00173608 -0.0013584568 -0.0012223551 -0.0033370003 0.0021053832 -0.003360695 -0.0017249681 -0.0023877495 0.0036688955 -0.0044651418 0.0026336717 0.0015374555 -0.0041589369 -0.0031234536 0.0048733107 -0.0040986142 -0.0019806486 -0.0041012764 0.00053447403
is 0.0024728072 -0.002876647 0.0016461262 0.0039347177 -1.1671497e-05 0.0025096682 0.0022179179 -0.0044768155 -0.00017061766 0.0020364916 0.0015742853 0.0042756214 0.0015659762 -0.0046973731 -0.0038315344 -0.0045583262 -0.001038332 0.0013185655 0.00090384617 -0.00078822993 -0.0014446006 -0.0036301122 -0.00019276144 -0.0022918177 -0.0047764666 0.0014645925 -0.0049817315 -0.0018046723 0.0017010296 -0.0010141805 -0.004026751 0.0018528629 -0.001495627 0.0047684652 0.00013597219 0.0018419637 0.004239277 -0.001028654 0.0041188048 -0.0044762162 -0.0047433483 0.0022615008 0.0025406792 -0.0026685025 0.0014233789 0.002142587 0.0043475763 -0.0044806344 -0.001341978 -0.0042357813 0.0013828238 0.0045040725 0.0039762002 -0.0021765621 -0.00055370427 0.0010937426 0.00023137566 0.0030710902 -0.0023152358 -0.0035798119 0.0019606648 0.0022052084 -0.0036173873 -0.002112455 0.0011002211 -0.0021688198 -0.0027126465 0.00023847725 0.0032388021 0.0027113114 -0.0025203761 -0.0027773348 0.0036565992 -0.00076761487 0.0034400919 0.0028076242 0.004397579 -0.001695564 0.0048671574 0.001837878 0.0049450672 0.00058820174 0.00015765824 0.0038670932 0.0014524468 0.0029546861 -0.0010887212 -0.0039489018 -0.0028292309 -0.0027347687 0.0038941046 -0.0031869079 -0.0027777262 0.002878699 -0.0040297657 0.0036875822 -0.0014062625 0.0023560165 0.0025442152 -0.00021274747
much 0.0015801471 -0.00094823184 -0.0049383226 0.0021723437 0.0026361486 0.0023886312 0.0043859566 0.0023196347 0.0043698158 -0.00061911566 -0.00058190484 0.00091430661 -0.00089379156 0.0033128804 -0.004331002 -0.0029387504 -0.0023232838 -0.0041760821 -0.0048622983 0.0031474845 0.0029522595 0.0011511411 -0.00052584661 0.0028522022 0.0020111783 0.0031958979 2.4620731e-05 -0.00159622 -0.0017029957 0.0024973054 0.0049626804 -0.0032874933 0.00075992296 0.0016456391 -0.004616593 0.0042445026 -0.0035643247 0.0013511884 -0.00091746036 -0.00035356439 -0.00091804954 -0.0013092529 -0.0046216706 0.00044871433 -0.0005458431 -0.0038112025 0.0026943116 0.0042056916 0.0048955614 0.0031825618 -0.0029349057 0.0042941622 0.0042347293 -0.0043793223 0.0011127852 -0.0033117509 0.0037550863 0.0027394032 0.0029124108 -0.0027683626 -0.0001468047 -0.0040616305 -0.0044063628 0.00039302499 0.0007267961 0.0024897903 -0.003639725 0.0027790575 0.0027012201 -0.0022392895 0.00050459278 0.0042119762 0.0043588579 0.00023515683 0.0034252866 0.0047084405 0.0032756068 -0.0024872345 -0.0026980133 0.0025432545 0.0026345158 0.0018270753 0.002866006 -0.0027090015 0.00068195653 -0.0038948867 0.003348544 -0.0029045721 0.0013320979 0.00066700648 0.0049366513 -0.00088192208 0.0049758884 0.0024686882 0.0038311263 -0.0021660398 0.0028022856 -0.0032822036 -0.0028195973 0.0044399593
more 0.0036864502 0.00094211387 0.00049057748 -0.00057439209 0.0031635743 0.0027920317 -0.0016734248 0.0041423468 -0.0011791128 -0.00032633156 -0.0036831261 -0.00045108146 0.0020235388 -0.002719345 0.0015153913 -7.9617763e-05 -0.0039109718 0.0013580972 -0.00047368376 -0.0039355303 0.0045175189 -0.0047311308 -0.002143597 0.00093816483 0.0020594674 -0.0015966959 0.0043425122 -0.0016145201 -0.0040454254 -0.0037331097 -0.0044500772 -0.00082066131 0.00071908365 -0.00038186382 -0.0019357894 -0.0033437826 -0.00046724902 -0.0014753389 -0.0046145841 -0.00097163627 0.0010098194 -0.0025733586 0.004049012 0.0017155885 -0.0045573534 0.0016928309 -0.0019636468 0.0013490672 0.00019941323 0.0019466738 0.0030072355 0.00085642713 0.0031983817 -0.0024049247 -0.0032188869 -0.0029166166 -0.0038434649 -0.0037237061 0.0011332348 -0.0018460967 0.0044450872 -0.0032127916 -0.00086106418 0.0010978793 -0.0019584105 0.0033299832 0.00072695699 0.0047423546 -0.0018132536 0.0038772339 0.0035845086 -0.0043200394 -0.00085403072 -0.00096517341 -0.0013541323 -0.0024426617 0.002182005 0.003892425 -0.0036176527 -0.00017303202 0.0034702481 0.0019742749 -0.00032329664 -0.0030080879 0.00020251176 0.0048780749 0.0039533651 -0.0050076726 -0.0021286223 -0.0045528575 -0.0010671956 -0.0026489976 0.0041038771 0.0025226106 -0.0015113964 0.00068854337 -0.0001794034 -0.0026932766 0.00047050108 -0.00044953174
full -0.00023278758 -0.0040807649 0.001770875 -0.0049187508 -0.0028922434 0.0048648049 0.0022490632 0.0028921617 0.0015529364 0.0014618167 -0.00093048188 -0.0040681567 0.00448866 -0.00126024 -0.0027680583 0.00016908534 0.0040505351 -0.0024758589 0.00065568264 0.0034591304 -0.0042998954 -0.0038917575 -0.0036850378 0.002456465 -0.0031974914 0.0038237656 0.0031534182 -0.003967532 0.0047916048 0.003829052 -0.0030446856 0.0028371594 0.0004491315 -0.0020600315 -0.0016435505 -0.0043265936 -0.0010465783 0.0035720409 0.0043499814 -0.003999772 -0.0038754479 -0.0039843391 0.004652522 -0.00089290593 0.0029307751 0.00093500211 6.7383451e-05 -0.00046745993 0.0015738988 0.0019606773 0.0010593828 -0.0042671422 -0.0013138448 -0.0045961877 -0.0031536424 -0.0021031897 0.0042473413 0.0043457104 -0.0041290116 -0.00035272661 -0.00087975548 -0.0020470796 0.0045607616 0.0042669387 0.0025793856 -0.0021072985 -0.0027103724 0.00210087 -0.0005540757 0.0016878373 0.0033338959 -0.0041894829 -0.000222716 0.00097066251 0.0014150272 -0.0047532171 -0.0028799274 0.0025250977 -0.0031209039 0.0027524082 0.0036388065 0.0029495065 -0.0047416813 -0.0029501759 0.0011636083 -0.004166292 0.0040182965 -0.0028877591 -0.0029116867 0.00294001 -0.004284658 0.0040429984 0.0011011565 0.002228606 -0.0027180766 0.0014030669 -0.0015779011 0.00028681816 0.0028022581 -0.00059560128
a -0.0029674831 0.0020861074 -0.0047907401 0.00042188994 -0.0019406356 -0.0046011563 0.0025183037 -0.00063281122 0.00058916857 -0.0019536435 0.0002528434 0.0033573306 0.0046957759 0.00087346486 -0.00094423076 -0.0022212353 0.0024303182 0.0015588795 -0.0049101636 -0.0038011561 -0.0025147048 -0.0047718063 0.001936696 -0.0022631953 0.0013093292 0.0020919119 0.0027773192 0.0010419434 0.0042151855 -0.0026269148 -0.0029931287 -0.0043224692 0.0019639963 -0.0015017844 -0.00394618 0.0040455656 0.0034717808 0.0004275589 0.0002060002 0.0025531962 0.0034956792 0.0037123568 0.0020476922 0.0044712913 0.0035176575 0.0015617164 0.00069325417 -0.0041037304 0.0039407909 -0.0021009012 0.0038002601 -0.00062317215 -0.0041036988 0.0034524598 0.0012236814 -0.0037073335 -0.002101718 0.0010245558 0.0048813834 0.0029652589 -0.0039626425 -0.0046042022 -0.003640122 0.0018013731 0.0042084195 -0.0045978646 -0.0010761287 -0.0042551346 0.0044077318 0.0036868872 0.0036088971 -0.0030798961 0.0040153209 -0.0019996963 -0.0048261951 -0.0028785097 -0.0033728783 -0.00048733619 -0.00024364746 -0.0045765759 -0.004798505 0.0016109947 0.0015688492 -0.0048603946 -0.0049770386 -0.0021513784 0.0034592135 0.00062483706 0.0019439609 -0.0036487849 -0.00024878694 -0.0034670723 0.0021839601 -0.003120003 -0.0029365339 0.0041489508 -0.0046144854 -0.0010134332 -0.0018786973 0.0049208556
separating -0.0032327757 7.3265604e-05 0.00032136127 -0.0014077884 0.0033489428 0.00094818912 0.0024491407 -0.0021305892 -0.00084785407 0.0017855644 0.0024953568 0.003411412 0.0047095222 -0.0046862164 0.0011437086 -0.00070555578 0.0014724933 0.0043925121 0.0027848117 0.0040282141 -0.0034263169 -0.0047985725 -0.0022692399 -0.0039815516 0.0014374051 -0.0012092043 0.0025507479 -0.004103303 -8.3561295e-05 0.0021819044 -0.00063943502 0.0046959585 0.0012551055 -0.00026362934 0.00095304451 0.0024014388 -0.0020733257 -0.0023991961 0.0009780738 0.00027810349 0.0026866645 0.0038685999 0.00434337 -0.004234768 0.003429655 0.0046927268 -0.0014528506 -0.0028941587 0.0010306002 -0.00066580344 -6.6961089e-05 -0.0049594278 -0.0018828524 0.0038575437 0.0037126108 -0.0037375907 0.0028128347 0.0020611682 0.0010268242 -0.0041122949 0.003465137 -0.001891785 -0.0041443072 0.0013473141 0.0020169299 -0.0018032372 0.0041637882 0.0031780147 0.0029331434 0.0028533016 -0.0042968229 0.0024853197 -0.0048487228 0.0048724213 0.002826228 -0.0022843117 -0.002983598 -0.0031281104 -0.00087425084 -0.0035233647 0.0021211477 -0.0049193664 -0.0046357824 0.00047290971 0.0029083767 -0.00015660135 0.0022851559 -0.0045561795 -0.0017850209 0.0037103246 0.0005117486 -0.00047974475 -0.00076395244 0.001092104 0.0047543119 -0.0040453617 0.00064055156 -0.0021949708 0.000655382 -0.0045777806
discarded, 0.0023723668 0.0033994005 0.0045531485 0.0028930248 0.0047202436 0.0048008296 0.0049018613 0.00014475921 -0.0045452709 -0.00049866544 -0.0034225562 -0.0012028173 -0.00061982073 -0.0038716793 0.0033018161 0.0039372048 -0.002325234 -0.0019029287 0.00022509762 -0.0021715239 -0.0024925484 -0.0044360114 -0.001356359 -0.0016296852 -0.0012991164 0.0043584178 0.0018712798 -0.0026504961 0.0032435772 0.0040977257 -0.0023631614 -0.00043880392 -0.0011927341 -0.0044202353 0.002053187 0.0038243439 0.0048239068 -0.00091450912 -0.0033671572 0.0034476144 -0.0044030217 0.0044198753 -0.0049636196 0.0024663974 0.0036684994 -0.0041627889 -0.0030672795 -0.0030992944 -0.0041916911 0.0022825978 0.00013899087 0.001725456 -0.0022664007 0.0018380411 -0.00033681354 0.0035500769 0.0023745571 0.0030437051 0.0021126545 -0.00022107629 0.0013032876 0.0018928011 -0.0027203194 0.0012203698 0.0033967006 -0.0034447839 6.4191678e-05 -0.0045167566 0.0023642927 0.0029051581 -0.0012418084 -0.0042443126 -0.0013038329 -0.0043144454 0.0045262449 0.0014462384 -0.0023785189 -0.0044569834 -0.0016770756 -0.0030680308 0.0033836698 0.0025171642 -0.00082455098 0.0010938531 -0.0015842597 -0.0013694341 -0.0013611228 0.00043558941 -0.0044657541 -0.00072082295 -0.0033550265 0.0011186529 0.0024479995 -0.0017687128 -0.0028405492 -0.0040937494 -0.0033720203 0.0037664415 0.0037774425 -0.0047215018
if -0.0011298814 -0.0044890251 0.0025699793 0.00069664052 4.4359596e-05 0.0032302823 0.0044388645 -0.0010457525 0.0046657254 -0.0017921344 0.0016127158 -0.00051904062 -0.0033225869 -0.0046406831 0.0029374992 0.0030999412 0.0039041694 -0.00012773201 0.0013551655 -0.0012430216 -0.001677051 0.0048731714 0.0024692095 0.0041412292 0.0032241782 0.0034190069 -0.0044406392 0.0046913857 0.0019473946 -0.00047576547 -0.0035011012 -0.0022057591 0.0019934978 0.0049572391 -0.0029470455 -0.0042140204 0.0007867245 -0.0028023303 -0.0031530277 0.0021930474 -0.0032500557 0.0021794694 -0.0045196181 -0.0010262213 0.0026309788 0.0040530781 0.0029311227 0.0033740276 -0.0032527128 0.00045055203 0.0032970549 0.0015246723 -0.0041676457 0.0047111134 -0.0040677255 0.0023368541 0.0011763959 -0.0011126231 -0.0047712638 0.0022897318 0.00094743352 -0.0001000572 -0.003212265 -3.1310851e-06 0.0034047165 -0.0014170469 -0.0025539147 -0.0041303425 3.9126233e-05 0.0012945464 -0.0010470595 -0.00026455257 -0.0047314102 0.0033087574 0.00045110343 0.0048255161 0.0035099091 -0.0041798828 -0.0032666915 -0.0013114715 0.0016190027 0.0018231778 -0.0038922387 0.0046754288 0.0043670661 -0.0037526316 -0.0047063613 -0.0038814165 -0.0044617518 -0.00018156895 0.0027599041 0.0032271876 -0.0020465089 -0.0036127272 0.00012526759 -0.0045949551 -0.0042230967 1.1735027e-05 -0.0039447895 -0.0040922812
resulting 0.00284821 0.0028996987 0.0030811199 -0.0013556369 -0.0003895401 0.0026508789 -0.0036969841 -0.0041176593 0.0048122671 0.004267049 0.0039096614 0.0011625902 0.0013454411 0.0019075677 0.0044421414 0.0028905494 -0.0011426341 0.0038105685 0.002746444 -0.0029782378 0.0039933464 -0.003402523 0.0034022124 0.00070620893 -0.002106905 -0.0040880283 0.0039658044 -0.00097433978 0.004527986 -0.0010190732 -0.0005395395 0.0019488543 0.0017060213 0.0042590294 0.0020477967 -0.00024913388 -0.0043035098 0.0017679994 -0.0013022387 0.0032284304 0.0033677395 -0.0047674892 0.0047660675 -0.0039196019 0.0023122379 0.0038092958 -0.00027659183 0.0026859713 -0.00060361851 -0.00017366747 -0.00036652421 0.0035631268 0.00083059282 0.002439402 0.0041580778 -0.0043384871 0.00017585217 0.003357484 0.0026869227 0.0029609636 -0.0017020779 -0.0047217901 -0.00070960115 -0.0046858895 0.0033933034 0.0035908776 0.0023450374 -0.0011688221 0.0009312788 0.0047943918 0.00014239008 -0.00034798658 -0.001284307 0.0027174195 -0.0038723031 -0.0018688772 0.0034303034 -0.0047173006 0.0047679199 0.00049987796 0.00011302719 -0.004509531 0.00067379692 0.00051531231 0.0032167819 -0.0034650767 0.003396071 0.00013011902 -0.0010653748 -0.0034188977 -0.0018043038 -0.0037454653 0.0021776978 0.0035880962 -0.0033657588 -0.0039820424 -0.00017869596 0.0013434411 0.0017973755 -0.00052485295
any 0.0016023444 0.0019491642 0.0035059864 -0.0022319301 0.0027569167 0.0038697231 -0.0026303721 0.0020803532 -0.0048205703 -0.0032190937 0.00022429734 -0.0034747974 -0.004637857 0.00401435 -0.0040971222 0.0032305876 0.0033236491 0.0041196425 0.0012725784 -0.0043907156 -0.0040007154 -0.0028067881 -0.0044485731 0.00029576517 0.004255149 -0.0049903318 0.0027342984 0.0019977454 0.00043879432 -0.0005858338 -0.0047549447 0.0018348626 -0.0011222388 0.0047030072 -0.0033270605 0.0021287634 -0.0035619636 0.0023801762 -0.0016616882 0.0048535946 -0.0015853901 -0.0038794859 0.0026477478 0.0031198056 -0.0041020624 -0.0025205507 -0.00094379479 0.0024464335 -0.00034472515 0.0043106102 -0.0013523392 -0.0047621541 -0.0038805283 -0.0014699496 0.0025440848 -0.003367174 0.0039572353 -0.0012862982 0.0024796289 0.00019331454 0.0038451971 -0.004275857 -0.0030089726 0.001188869 0.0032847465 -0.00238858 0.0036844776 -0.0015289696 -0.00052874349 -0.00024489366 -0.0030741179 -0.004500058 0.0023644273 0.0032028463 0.0031985505 0.00018854535 0.00070474233 -0.003874924 -0.0040336074 -0.0038705156 0.004466325 0.0014250877 -0.0010372803 0.0039552362 0.0034325144 -0.0001598547 -0.00018514498 0.00094594574 0.0032542814 0.00012832506 8.6874397e-06 0.0015574988 -0.0024703627 0.0018050357 -0.0035605123 -0.0017624436 -0.0036459882 -0.00043008031 0.0047391849 0.0017630472
faster 0.0011797328 0.0039400542 -0.0039507044 -0.0025156215 -0.0047488129 0.0016028548 -0.0043369723 0.0046523921 -0.00013906545 -0.002615459 -0.0032043303 -0.00096206693 0.0023567157 0.0010350699 0.0046907649 -0.00051404774 -0.0026594184 0.0039423853 -0.0048866156 -0.0022427554 -0.0048044468 -0.0024041925 0.0044973432 -0.0017148167 0.0015533768 -0.0018419145 0.00070730544 0.000914737 0.0043871892 -0.0019685398 0.0029075146 0.004812283 -0.0011062061 -0.0047260597 0.0028656586 -0.0027511893 -0.003858323 -0.0018221984 -0.0020397683 -0.0013482233 0.0014621016 0.0025552113 -0.0019766844 0.0037886307 0.002685538 0.0047329636 0.0024076565 -0.00015154795 0.0040372168 2.0316258e-05 3.2284996e-05 -0.00025827004 0.0010004792 -0.0033470911 0.004705681 -0.0048873783 -0.0043274001 0.0032957008 -0.0047735046 -0.00020129351 0.001889249 0.0048291092 -0.0011701713 -0.0019937062 -0.00036903974 -0.0033574991 -0.0023660844 -0.0015359777 -0.0042388868 0.00039795431 -0.0032047981 0.00086595718 -0.0031338593 0.0046430407 -0.0023723464 -0.0013163668 -0.0043613273 -0.00016709355 0.0027140803 0.0029286956 0.0049233004 -0.0032252416 0.0017586388 0.0037015271 -0.0014474122 -0.0028709716 0.0031007519 0.00049625355 0.0034490596 0.0045835855 0.0040040221 0.0013686891 0.0012068443 -3.6363985e-05 -0.0047798711 -0.0020115774 0.0040209247 0.0015688658 0.0024430763 0.0022362845
you -0.0024943154 0.0026188307 0.0043518078 0.0025403472 -0.0031858904 -0.0011852557 -0.0025169062 -0.00077630859 0.0039723353 0.0040060384 6.5198583e-05 -0.0048191836 0.0023444307 8.1234859e-05 0.0047672391 -0.00125908 -0.0025821191 -0.0033382589 -0.0030601248 0.0028080726 0.0024524671 -0.0043393373 -0.0014818057 0.0028932341 0.0048053171 0.0042198431 0.0048632054 -0.0017821444 0.0015965903 -0.0021547766 0.0025504152 -0.0025474231 0.0035562348 0.0018237382 -0.0030009905 -0.0017927013 -0.0017997348 0.0042281775 0.0015211527 -0.0038290464 0.0013150369 -0.0013851949 -0.0020061294 0.0025297015 0.004841533 0.0002700988 0.0048540318 -0.0023737436 -0.0034676294 -0.0027668474 0.0033628375 -0.00090338144 -0.0024028393 0.0036747728 0.0025182178 -0.0013372491 0.0047255573 -0.00067870371 -0.0031490438 -0.0022738196 -0.0034378211 -0.00016102225 -0.0036817493 0.00056192238 0.0043428582 0.0043029129 -0.003286113 0.0028082766 -0.0011519669 0.00036921405 0.0035205802 0.00079230167 -0.0042465748 -0.0046181525 0.0047143088 -0.0010290458 0.002733143 -0.0048223147 -0.0013403678 0.0045625358 0.0018902203 0.0029128392 -0.0024770198 0.0038057417 2.453784e-05 -0.0031250692 -0.0040333066 0.00259646 -0.00049240346 0.0013591216 0.00059410679 0.0042495872 -0.0046537798 -0.003492276 -0.0023870976 -0.0031645128 0.0049181557 -0.0011427604 0.00075140962 0.0021602775
between 0.004758141 -0.0024876776 -0.0024880006 -0.0010712018 0.0035938493 0.0011345178 -0.0019227925 -0.0014700117 0.0021241289 -0.0021257286 -0.0021492471 0.004346394 0.00085461972 0.0027119161 -0.0025075662 0.0040869359 -0.0049869469 0.0033159696 -0.004591994 -0.0049502519 -0.0023245104 0.0013974573 0.0044762115 0.0029470727 0.0031011524 -0.0028374332 -0.0035129399 -0.0034249539 0.0020448386 0.0036892961 -0.0045096879 -0.0049950397 -0.0012484868 0.002991254 0.001724251 -0.00350569 -0.0029072762 0.0022301467 -0.00035190099 -0.0049480214 -6.90175e-05 0.0016272234 -0.0018547114 -0.001139201 0.0024695178 -0.00088958954 0.0020755734 0.0019197201 0.00053413317 -0.0037011008 0.00021065632 0.00086631806 0.0026693437 0.0021937422 -0.0047879675 0.0034824954 -0.0028853633 0.0019244174 -0.0020280585 0.0032083383 5.896268e-05 0.0044744727 -0.0030506207 -0.00041576213 0.0034938587 0.0025291787 0.0037835825 -0.0049047288 -0.00059890118 0.0015664645 0.002303567 -0.0032236751 -0.0044803731 0.0020328315 0.0042012525 -0.0011271968 0.0013503482 -0.00015889147 -0.003196419 -0.0033763268 -0.0042597493 0.00012555333 -0.0033326116 -0.0036486227 0.0039338153 0.0010545948 -0.0044038109 -0.0048364294 -0.00067710254 0.0041164048 0.0046790768 -0.0032392743 0.0012728256 -0.0016291244 0.0044012549 -0.00078945083 0.0015722513 -0.001009931 -0.0010095434 0.0029381765
model -0.0022350976 -0.0021797139 0.0016860208 -0.0049093091 0.0010842175 0.00063217187 0.0025436583 -0.0022993542 0.0022135044 -0.003485935 -0.0026140288 0.0025509358 0.0027532375 -0.0025552441 0.00035694143 -0.0021054712 0.0021422927 8.5480606e-05 -0.0033162555 -0.001269051 0.0013960507 -0.00093959511 0.00043276954 0.0031628623 -0.0016287742 0.0015170139 -0.0043900521 0.0028142706 -0.00036303524 0.00054670911 0.0028956488 0.0015273017 -0.004809103 -0.0042754873 -6.6252862e-05 -0.00031869608 0.0041341069 0.0047980258 -0.0047410149 -0.001553972 -0.0036808725 -0.0039278064 0.0030821755 0.00079105236 0.0014135161 0.002320607 -0.0048925616 0.0034159014 0.0048314864 -0.00079840585 -0.00012250808 0.0035142964 0.0022895047 0.001597447 0.0048050354 -0.0024971135 0.0025923643 -0.0019729065 -0.0030811282 0.0037935472 -0.00014787137 -0.0028629343 0.0039551873 0.00027879496 -0.00071254018 0.00018826182 0.0035756447 0.0022037483 -0.0012669058 -0.00076405331 -0.001466895 -0.0042635351 0.0010001333 0.0035301009 -0.00072953268 -0.00051032903 -0.0018186899 0.0047806916 -0.0016671178 -0.0034028459 -0.00041636336 -0.0036731749 -0.0010620283 -0.0019366243 -0.0023160451 0.00056778319 -0.0032080987 -0.0031501669 0.0044832099 0.003980164 -0.00025499766 -0.0048440117 0.0015218311 -0.0011260874 0.0012369115 -0.0012659013 0.00055438868 0.0036438552 -0.0038236387 0.0042299777
object -0.0045036958 0.0042615309 -0.0030561434 0.0047772555 0.003031804 0.0027470833 -0.0037751305 0.0050113047 -0.00072795025 0.0010782012 0.0027012241 -0.00015769732 -0.0039263368 0.0027361163 -0.0030109079 0.0023894547 -0.0027948017 -0.0038732814 -0.0027472165 0.0043217894 -0.0035119257 0.0023231963 -0.0032962731 -0.0032028253 0.00021033628 0.0031043941 -0.0030222479 0.0042665484 -0.00072811515 -0.0029406843 -0.0049789897 -0.0014004313 -0.0016985242 0.0043932009 0.0029369944 -0.0038468977 0.0022655362 -0.0012103046 0.0034063875 -0.0021827321 0.0043525789 0.00037237143 -0.002941336 0.0029238928 0.0044066315 -0.0014491136 0.0038572059 0.0021756354 -0.0041101114 -0.0016693013 0.0018932999 -0.0018219228 0.00045879328 -0.0033730683 -0.003167901 -0.0047582327 0.00053741434 0.0029932098 0.0035723969 0.0011193347 0.0032281338 -0.002110166 -0.0006536204 0.0016240996 -0.00054576702 0.0011747959 -0.000635951 0.0026289236 0.0034948208 -0.0035045962 0.0023564254 -0.0028940155 -0.0040614349 -0.00039648809 -0.0043516178 0.003941434 9.0263682e-05 0.00010663186 -0.0011088523 -0.00013315906 0.0032921708 -0.0030157042 -0.0045490679 0.0015590666 -0.00072908454 0.00022812632 0.0029966517 -0.002199945 0.0036538087 -0.0040715458 0.0028643494 0.00011610662 0.00062325835 0.0028877696 0.0038350911 -0.0023732535 0.0019974483 0.0020478396 -0.0015142168 0.0016560227
processes 0.0020059152 0.00233432 -0.0022638983 0.00069615728 -0.0043887729 0.0026847636 -0.00066401745 0.00098087429 0.0020882888 0.00014667622 0.00073041639 -0.0018037177 -0.0015030822 0.0036058077 0.0010736457 -0.0026978115 -0.0028813793 0.0023867837 0.0040047723 -0.0027037454 -0.0047177984 0.0021061944 -0.0045902166 0.0012316426 0.0037201273 0.00060902303 -0.00092793751 0.0032448759 0.00085393916 -0.0043101222 0.0015295424 -0.0039731106 -0.0038011791 2.398483e-05 -0.0034064387 -0.003688571 -0.004666693 -0.0005837658 -0.0023769622 -0.0012457405 -0.00064637599 0.0029712298 -0.0044524991 0.0044722841 -0.0018396863 -0.0044967905 -0.0018723484 0.0035171483 -0.0014171023 0.00073556328 0.00038050034 4.9456816e-05 -0.0021982316 0.0042949263 -0.0037318619 -0.00080294296 -0.0030811927 -0.00091701432 -0.00027583676 -0.0035465185 -0.0041898801 -0.00081360346 -0.002566112 0.0041154167 -0.00027807787 0.0029898565 -0.0011570362 0.0022453801 0.0018497237 0.0021046051 0.0019355108 -0.0020270997 0.0043637599 -0.00031247173 0.0035642078 0.0019872396 0.0040584295 -0.0009588172 0.0048409365 -0.002938688 0.002234193 0.0028843244 0.00060968491 -0.0011240296 -0.0046122042 -0.0038141888 -8.7675377e-05 0.0030306315 -0.001862734 0.00069066277 -0.00083387119 -0.0035143166 -0.0030339779 0.00053575821 0.0034261597 -0.0016497073 -0.000618405 0.0023456514 -0.00023059898 0.00038720248
KeyedVectors -0.0021749048 -0.00037907402 -0.0019652362 -0.0031548892 0.0022616414 -0.0013448681 -0.00092808087 0.0025512332 0.0038208803 0.003978732 -0.0020481076 -0.00073971314 -0.0038531292 -0.0027290683 0.0048139412 0.0037766953 0.0026803906 0.0049769157 -0.00017655225 0.0014790094 -0.003424559 -0.0038048979 -0.0037749109 0.003473673 -0.0038946308 0.0041165897 -0.0011185554 0.0020749473 -0.00050801708 0.0037393016 -0.00016731958 0.0048879911 -0.00147615 -0.00017337577 0.0011280632 0.0048506274 0.0019807382 -0.001038019 -0.0047320221 0.0027260061 -0.0017123091 0.00056682865 -0.0044813729 -0.0010742352 -0.0010137954 -0.0043895491 0.0015511084 0.00030894854 -0.0028897109 0.0040065045 -0.003800997 0.00288058 0.0044180169 -0.0023271306 -0.0027468011 -0.0020198531 0.0029891559 -0.0039142845 -0.0041481331 -0.0031123369 0.0046968027 -0.0018304837 -0.0034562727 -0.0030036578 0.0040209787 0.0014652928 0.0015539175 -0.0035576313 1.5370064e-05 -0.0047178837 0.004492037 -0.0018834218 0.0045071482 0.00208915 0.0030040627 -0.0029990152 -0.0030810882 -0.00038076023 0.00082434074 0.00051479618 -0.0049903644 -0.0039359131 0.0028804243 0.0046260608 0.0011431542 0.002973963 -0.0023111878 0.0035737508 0.0019256818 -0.0041369698 -0.00089546753 -0.0035629657 0.0041911472 0.0025794753 -0.0034349875 0.0034951577 -0.0011992503 -0.0017093881 0.0021566141 0.0014288479
continue -0.0036569173 0.0025460911 -2.6134083e-05 0.0031988777 0.0032448955 -0.00099167414 0.001914034 -0.0037688226 -0.00436245 -0.00080443296 -0.0011721603 0.0025505354 0.00032792136 -0.0017183932 0.0045594783 0.0031651561 0.0026291611 0.00017797764 -0.0025707383 0.00081309135 0.0036405977 0.0024763034 0.0033555184 0.0017057778 0.0022277532 -0.0014874386 0.0041997386 -0.003488441 -0.002150848 -0.0047082696 9.5076568e-05 0.0042133722 -0.0034657426 0.0026967954 0.0031514124 -0.0027163567 0.0040317755 -0.00015125959 -0.0045122216 0.003691582 0.0008637482 0.0041044531 0.0038904813 -0.0048997048 -0.00047309446 -0.00031498101 -0.0023022708 0.0015298729 -0.0019642992 -0.003973274 0.0039590565 -0.0028425502 0.0019940098 -0.003235019 0.0046621524 0.0031573486 -0.0007710745 0.0011117093 -0.0047589652 -0.00095500943 0.0039517791 0.00069978915 0.0020586918 -0.0023248969 -0.0032404405 -0.0017556151 0.0015937944 -0.0049707992 0.00102169 -0.0031250298 -0.004059786 0.0032258905 -0.0014908508 -0.0047368589 -0.0010242981 -0.0019805396 -0.00075091713 -0.0046671894 -0.0041132756 -0.0013686222 -0.0025732708 -0.0048493296 0.0042812605 -0.0044335751 -0.0021968149 -0.0031601989 -0.0034431505 0.00024237212 0.0025602223 0.0048785424 0.00010604042 0.0015187395 0.0017550605 0.0048991316 0.004542511 0.0010292856 0.0047831102 -0.0017373788 -0.004666728 -0.0017349349
RAM -0.0047114431 -0.003015311 0.0033927476 0.0015846359 -0.0039603906 0.0044945823 -0.0035007647 0.0042558145 4.1453721e-05 -0.0026579965 -0.0031173979 0.0039789057 -0.00021202675 -0.0012901489 -0.0043259589 0.0029272179 -0.0038723296 0.004550653 0.0043813013 0.0049923244 -0.0015682279 -0.0010365123 0.00058464037 0.002275645 0.004488531 -0.0035128719 -0.0027210773 -0.0045103631 0.00018363044 -0.0012519713 -0.0031077487 0.0028862329 -0.0019652559 -0.00087289367 0.00059855712 0.0031484109 -0.0027401738 0.0034090281 0.0044947765 -0.00029925388 -0.0025940223 0.0010599945 0.0024067049 -0.0011712656 0.001949403 -1.7920034e-05 -0.002404046 -0.0049328725 -0.00360044 0.00024616279 -0.0026506661 -0.0045426586 0.0049819564 -0.0031881421 0.00043984529 -0.0039733918 0.0020545248 -0.00073600182 -0.0035824387 0.0013876205 0.0034602014 -0.0040238439 -0.0027926224 0.00066021824 0.00033254226 -0.0047109406 0.0039130463 -0.0025695181 -0.0019503771 0.0024672581 0.0013738043 0.0039079776 -0.0047039655 0.0032918637 -0.0021835505 -0.003070652 -0.0042985897 -0.00092998939 0.003467724 0.00097981875 0.0022858465 -0.0034625856 -0.004225336 0.0046366397 -0.00028701659 -0.0021229682 -0.00052708149 0.0046512941 -0.00096893101 -0.0021419046 0.0028675143 -0.0042544068 -0.00019442948 0.0026075759 -0.00046592392 0.00078160904 0.0031627812 0.0021051944 -0.00069337082 -0.0042763408
fast -0.0026491554 -0.0004330879 0.0024242147 0.003830936 0.0027591775 0.0049709529 -0.0017000914 0.0026900121 -0.0013261973 -0.0010546194 -0.0014429212 6.8809153e-05 0.0023106951 0.0041317213 0.0048368634 0.0018271689 -0.0046163611 -0.0013867966 -0.0044283965 0.003547278 -0.0038071424 -0.00035709882 -0.00083597406 -0.00058285869 -0.00059329782 -0.0016689722 -0.0041985214 -0.0009484248 0.0019810158 0.0017124057 0.0048520383 0.0049413079 0.0013818955 2.6908012e-05 0.0026373053 -0.0021423793 -0.0013557915 0.0046219141 0.002102938 0.0020595558 0.00023368165 -0.003236898 0.0012260426 -0.0035825279 0.00031580156 0.0013042297 -0.0027813443 0.0011872782 0.00027203799 -0.0012209397 0.004435794 -0.0015431996 -0.0031346309 0.00015838961 0.00073014089 -0.0033666405 0.0047508567 -0.0037220474 -0.0038068779 0.0027399333 -0.0036277759 0.0029578181 0.00019882331 -0.0037227005 0.0007763381 0.0020973259 0.00061918353 0.0043630642 -0.001808254 -0.0042831772 -0.0034167722 0.0037044312 0.0039448035 0.0028164738 0.0019077482 0.0031521155 -0.0028716035 -0.0040342892 0.0027891186 0.002639178 -0.00052799395 0.0039346344 0.0013051472 -0.0038453063 -0.0027226508 -0.0026180849 0.0014784388 0.0019025112 0.00038379134 0.0022903709 -0.00065148302 -0.00191371 0.0037542016 -0.0025812604 0.0017333493 0.0032929643 -0.0015130123 -0.0040030666 -0.0018941705 0.0030136236
reason -0.00091023132 -0.0036457495 0.00080265308 0.00021174503 0.0022039621 -0.0027277984 -0.00030494246 0.0044174865 -0.0019709812 -0.0040472182 -0.00036750434 0.0028892283 -0.0042714835 0.0036005729 -0.0037737289 0.00028925834 -0.0018138636 0.0034361673 -0.00033986921 0.0020739278 -0.0012741535 -0.0036476988 -0.0048018689 0.0042070164 -0.0039261794 0.0020755045 0.0032328621 -0.0018507353 0.00096738746 -0.0048940978 -0.00453495 -0.0015938267 0.0048718248 0.0037788395 -0.0034178603 0.0035498079 0.00014801652 -0.0020181178 -0.00053803466 -0.0047157328 -0.0049129333 -0.00011411641 -0.0012462699 0.0041961842 -0.0031181658 0.00024904351 0.0032813221 0.003127764 0.001542457 -0.0036559631 0.0013928321 0.0014752165 -0.0035556746 0.0016395135 -0.0040119942 -0.004056049 -0.00076900015 -0.0031112714 0.0048010815 -0.0047850758 -0.0016769038 -0.00083238963 0.0033441389 -0.0033526174 -0.0038800053 -2.0720154e-05 0.0028141467 -0.0046236836 0.0041315109 0.003063163 -0.0018620531 -0.0036097721 0.00050949346 -0.00093344843 -0.0026502719 0.0019357875 -0.0049225292 8.6734726e-05 0.0021657217 -0.0038196621 0.00072733156 -0.00081835972 -0.0023398765 -0.0046036793 -0.0047388617 -0.0017047846 0.00087488152 0.0035563237 0.002295417 -0.0013992288 -0.00017058065 -0.0013088431 -0.0032422778 0.0030887362 0.00023777396 -0.0013198203 -0.0035832264 0.003388477 -0.0016700492 0.0041366518
The 0.001265872 0.0048730318 0.0045809839 -0.0011353013 -0.0013349457 -0.00094874064 0.0049560354 -0.0017939719 -0.0037885022 0.0027440886 0.0036062931 -0.0020897789 0.0020188221 0.0030964073 0.0035311098 -0.0034684907 0.0010776999 -0.0020054567 -0.0048610377 -0.00034990438 -0.00090304343 0.0012751112 0.0024715886 0.0018942764 0.0015647737 0.00023810918 0.0048921905 -0.0017065561 0.0028293191 0.0047846287 -0.0037904426 -0.00037081147 0.0019113799 0.0018020862 -0.0014433978 -0.001071592 -0.0048077852 -5.7790694e-05 -0.0031610271 -0.0029325627 0.0038913484 -0.0028313128 0.00019608001 -0.0036429921 -5.4663589e-05 -0.0038608618 -0.0025673728 -0.0015016245 0.0010581997 0.0020549996 0.00088081672 0.0027413859 -0.0026216737 -0.0028594704 -0.0018312793 -1.4754219e-05 0.0048998059 0.0017494269 -0.0014091177 -0.0046623503 -0.0031527858 0.0015549605 0.0035817414 0.00488903 0.0015199968 -0.0027394125 0.0015749087 -0.0026751999 -0.0026329255 0.00044395824 -0.0025273412 0.0023721782 -0.0043463856 0.0043748999 0.0023633521 -0.00097128237 -0.0031910071 0.0047292816 -0.00040054991 -0.0023960534 -0.0012316894 0.00053018186 0.0021276115 0.0033739326 0.00093315507 0.00028549237 0.00091560284 -0.0039745653 0.0021501079 0.00011835192 5.662427e-07 0.0040324568 -0.00048027333 0.001263637 -0.0029392731 0.0018409474 -0.00373182 -0.0045907646 0.0048131328 5.2588337e-05
mmapped -0.0026192786 0.0046799108 -0.0002800019 0.0018445814 -0.0022426716 0.00090590183 0.00076796528 -0.00038166059 0.0018459586 -0.0024255062 0.0046768473 0.0033806218 0.0004504394 0.0037143526 -0.0033728061 -0.0020716575 0.0011434627 -0.0048702676 0.0026157212 -0.00020643068 0.0031574147 -0.004897133 0.0011769283 0.0014250657 0.0011732326 -0.0047505246 -0.0018856709 0.0038535923 0.004636663 0.0045209248 0.0038752884 -0.0034377899 0.0041874 0.002495575 0.0006477033 0.0027963188 -0.0026505317 0.00294495 0.0039407555 -0.0043582967 -0.0032699127 0.00039591748 0.004980538 0.0024646898 -0.0032429714 0.001660266 0.0031916194 0.00093729323 0.00051314349 0.0016463726 -0.003882692 -0.0041416408 -0.0010815966 0.0045314315 -0.0039890022 0.0040768688 0.00054235529 0.0031905477 0.0030056825 0.0039826161 -0.0037424003 -0.0035462535 0.0015476699 -0.00035949529 0.00057630969 0.0010530448 -0.0004300724 -0.0032748128 -0.0042234291 -0.0049917917 0.001012243 0.0045377966 0.00016890977 0.0043006395 0.0020789143 0.00015245077 0.002718335 -0.0027240086 0.0038123813 0.00099672284 -0.0034832391 0.0036268337 0.000271439 0.004676959 -0.00087969296 -0.0027239514 0.001980345 0.0031170743 0.0044417609 -0.0012893905 -0.0043532825 0.001002014 0.0029032046 -0.0045389193 0.0025340666 -0.0015156459 0.0026911104 -0.0031775753 -0.0023861884 0.0048272521
training), 0.0010055244 -0.0018080338 -0.0048757605 0.0040385593 -0.002301448 -0.0016846806 0.0041608196 0.00269278 -0.0004123651 -0.0015140983 0.00075019972 0.00047649204 -0.0027194791 0.0034138924 -0.0049565108 -0.0022462406 0.002361543 0.003806385 -0.0048481692 0.0014523037 -0.0042178081 0.0015850693 0.0015837442 0.0042467271 -0.0010547009 0.00096430152 -0.0047767274 -0.0025518436 0.0004063471 -0.00032625996 0.0039013985 0.0035828331 -0.0049399361 0.0012789158 0.0025802411 9.5730422e-05 0.0034968716 0.0025023287 0.0031491972 0.0035810859 -0.0037879441 -0.0036671634 0.0026403726 -0.0033972168 0.0035906832 -0.00037104095 -0.0044044163 -0.0046518147 -0.0025096324 -0.0029220944 -0.0033317811 0.0045345468 -0.0045980001 -0.0038515271 -0.00033958949 0.0020752791 -0.0035007412 -0.0049232217 -0.0048566591 -0.0023596804 -0.0019142496 0.0041258852 0.0044834502 0.00073490757 0.0029156008 -0.0013467962 0.0034464784 0.0017525112 -0.0041389037 0.0041018631 0.004272846 0.0041499888 0.0026948832 -0.002046047 -0.0039963494 0.0039582825 -0.0046453155 -0.0021799649 -0.00028906114 -0.00034627557 -0.0034674585 -0.00046390673 0.0017965309 0.0029585967 -0.0015252653 -0.002820415 0.0028043129 0.0029218635 0.0049628224 -0.002532654 -0.0024298504 -0.00027957186 0.0020023193 -0.00038168218 0.00063308817 0.002449516 0.0032371173 0.0014234135 0.0029997265 -0.0024858804
sharing -0.0041542565 -0.0020744326 -0.0042436742 0.0019989584 0.0017377925 0.004157905 0.0017113844 0.00041105796 0.0049509206 -0.0047810525 0.0023342764 -0.0016560771 0.0016769554 6.3468333e-06 -0.0013425252 0.0013815271 -0.0044806991 -0.0026903537 0.0038817159 -0.0036799901 -0.00067296962 0.0020162463 0.0031193858 -0.0034996546 0.004508811 0.0010767328 0.0037842509 -0.0023454928 -0.0018320348 0.0033270766 0.0018706443 -3.6001325e-05 -0.0022241466 -0.0042852121 -0.0028017019 -0.0015867465 0.0029420517 -0.00085823267 -0.00027317044 0.0013030004 -0.002099012 0.0027029377 0.0027770384 -0.00049985392 -0.0020956437 0.0015661337 0.0044148583 0.0026393807 -0.0025330256 0.0013299524 -0.0028258578 0.0018894121 0.0046119196 -0.0041288142 0.00080537004 -0.0029258889 0.002932908 -0.00020226516 -0.0042282334 -0.0040573012 -0.004491332 -0.0049336073 0.0029339702 -0.0022767824 0.0047729658 -0.0019848705 0.0023515036 0.0016090522 0.0043809256 8.5753036e-06 8.3044462e-05 -0.0035183611 -0.0020839723 -0.0040835291 -0.0028081364 -0.00058728858 -0.00022107258 -0.0043966174 0.0049815425 -0.0013744218 0.00067116984 -0.0040907003 0.0032540937 0.0042454856 0.0021094214 -0.0043054898 0.0011288568 0.0005524935 0.0019361919 0.0033271608 -0.00016327166 0.0011243579 -0.0020163096 0.0018786142 0.001320506 0.00089073955 0.0037104995 9.4265881e-05 0.0020060367 -0.0027348103
be -0.00068924855 -0.00049640739 -0.0047698868 0.0033415477 0.0010975647 -6.5713335e-05 0.0030388692 -0.0019241361 -0.0023479268 -0.0002252171 0.00081741455 -0.0020969345 0.0014833586 0.0036048004 0.0042230771 -0.00050986232 0.0040228511 0.0019623793 0.0027737515 0.0042761415 0.00086493726 -0.0025974221 5.3658223e-05 -0.001409975 0.0013989547 0.0029605185 0.00088704529 -0.0032565519 -0.002760292 -0.0021901741 0.0029445281 0.0045203427 -0.0023962904 0.00067020487 0.0045034909 -0.0018249339 -0.0030686841 -0.0047438187 0.0029298491 5.2346411e-05 0.0046064621 0.00046607532 -0.004802716 0.0039842771 0.00091179111 0.0020919668 0.0035091646 0.0039426531 0.0033781666 -0.0042937314 -0.0026377609 0.0046861945 0.0011525465 -0.0003685547 9.1019327e-05 -0.003721976 0.0015793993 0.0025429272 -0.003519838 -0.0023759664 0.0046404167 -0.0027376721 -0.001277115 -0.0031112274 -0.0038085929 0.0045923749 0.00049488951 -0.0036776231 4.0041807e-05 -0.001654684 0.0017039238 -0.0024355114 -0.00028390827 0.003257985 -0.0021001305 -0.0019620839 0.0032845447 0.0031927093 0.0016026188 0.0020592986 -0.0025614856 0.0014342122 0.0033955358 0.0022831669 0.0021713048 0.0034178132 0.0003618781 -0.0044203219 -0.0029951422 -0.0033492253 -6.0652765e-05 -0.0037606461 -0.0037643309 -0.00071678963 0.00031193829 0.00089088036 0.0048987069 0.00049048319 -0.0040652682 0.0035408691
